qw1:
[[[[  79]]

  [[  -1]]

  [[-127]]]


 [[[ 119]]

  [[-127]]

  [[ -44]]]


 [[[-121]]

  [[-127]]

  [[  85]]]]

qw2:
[[[[  -3    9   29]
   [ -12  -30   -4]
   [   3  -19   -6]]

  [[ -83  -13  -27]
   [  16   73   20]
   [-127   -3  -27]]

  [[ -27   -4   -8]
   [  18    9    4]
   [ -30   -3   -8]]]


 [[[  50   29   60]
   [  -1  -50    5]
   [-117  -61   28]]

  [[  39  -59  -39]
   [  38   47   -3]
   [ -33  -96   18]]

  [[  55   60   71]
   [  10  -20   30]
   [ -45 -127   21]]]


 [[[-127   12  -44]
   [  -6   35   47]
   [-119   -3  -38]]

  [[  69  101   61]
   [  45   47    5]
   [ -16   13  -35]]

  [[  -6   57    9]
   [ -37   47   34]
   [ -52  -16  -15]]]]

qw3:
[[[[  -8   12   12    7   -1]
   [ -13   11  -19  -30   -7]
   [ -16   -9   -8   -2   -5]
   [  -6  -12   17   -8   11]
   [ -12   18    0   -6    1]]

  [[  -4   -1   24    2    8]
   [  10   -1  -14   -7   -9]
   [  26    5   16    6    8]
   [   6  -17   -1   32   -5]
   [   6  -14    8   17    3]]

  [[  -8    7    3    3    4]
   [  -8    4    3    4    2]
   [ -14   17    1   -8    1]
   [  -3  -12   11    6   -2]
   [ -18    3    3   -7   20]]

  [[   6  -27  127   -7   91]
   [   9  -25   47  -39   79]
   [ -31  -85   20  -37   23]
   [   7  -60    8    9  106]
   [ -70  -67   22 -127  -26]]

  [[ -27  -37  -19  -11   -6]
   [   0   14   -4    4  -12]
   [ -21  -15   13   -1   21]
   [   6   17   -4   32   40]
   [  -3  -11    4    8   -7]]

  [[   7  -11   -7    8  -34]
   [ -11   -5  -20   -2  -41]
   [   1  -10  -14  -10  -10]
   [  18  -18   12   27  -17]
   [   6  -19  -15    2  -44]]]


 [[[   3    0    9  -12   15]
   [  -3   -8    2   -6    2]
   [   4   -1    5  -19   -1]
   [  -1   -9    0    6   -4]
   [   3  -17   -4   11  -19]]

  [[  -1    6  -13   -8    6]
   [ -17    2   16  -12   13]
   [   8   10    2    9   -3]
   [  -9   -2   17   -5   -2]
   [   8    5   -4  -11   12]]

  [[  -5    3    7   -5   -1]
   [  10   -6   -3    4    2]
   [ -11   20    3    4   -1]
   [  -5   -1  -12    5   10]
   [  -2  -15   11   -7  -12]]

  [[ -51   15   23 -112  -40]
   [ -33   39   51  -90   13]
   [  65   74  109   43  127]
   [ -38   -4   50  -73  -21]
   [ -39   29   72  -66   -2]]

  [[  -9  -10    3  -25  -15]
   [  -2    8   -6    0    2]
   [  -3   10   13  -16  -15]
   [  -3  -21    0   -8   -1]
   [  12    2    6    5    4]]

  [[   3   -2   13    2   -3]
   [  15    2   17   25   -6]
   [  -6   -6   -8    1    1]
   [  14    7   -4   11   -6]
   [  -6    0  -13  -15   -2]]]


 [[[ -84  -48  -60  -58  -92]
   [ -41  -41  -51  -38  -50]
   [ -85  -88 -106  -99  -87]
   [ -63  -62  -80  -72  -69]
   [-107  -96 -100  -95 -127]]

  [[   2   -3    3    4    2]
   [  -2   -1   -5   -5    3]
   [   1    1    3   -1    1]
   [  -1    2   -1   -1   -7]
   [  -8   -7   -4   -1    0]]

  [[ -61  -26  -22  -25  -62]
   [ -33   -9   -2   -4  -22]
   [ -60  -46  -34  -39  -52]
   [ -48  -26  -18  -14  -38]
   [ -89  -54  -49  -45  -84]]

  [[  -3   15  -12  -33  -28]
   [ -11    3  -14  -43  -41]
   [  50   43   25   17   27]
   [  -7    8  -16  -40  -35]
   [  14   18    0  -11   -8]]

  [[  -1    2    0    4    4]
   [   0    1    3    5    1]
   [   3    0    5    6   -2]
   [   2   -1   -2    3   -1]
   [   9    5    1    2   -1]]

  [[  -4   -1    1    5   -1]
   [   5   -1   -4    3    2]
   [   2    0   -2    0    0]
   [  -5    3   -4   -1   -5]
   [   4   -4    2    3    2]]]]

qw4:
[[[[ -20   20  -80  104  -74  -20  -23]
   [  28   66  -16  127  -17   29   29]
   [ -48  -12  -95   83  -71  -40  -64]
   [  -9   16  -56   55  -55    7   20]
   [ -43   -9  -84   80  -80  -28  -29]
   [ -10   13  -39   90  -54   -8  -21]
   [ -23   -5  -61   95  -67  -15  -22]]

  [[  -1    3   -7    3    2   -3   -1]
   [   9    5   -8   -1   -3   -3   -5]
   [   2   -3  -12   12   -4   -6   -2]
   [   7    7   -6    5   -5   -2    4]
   [   1   -4   -1    0  -12    2   -4]
   [   0   -2   -2   -1    2   -2    1]
   [  -2   -7    4   -5   -3    1   -2]]

  [[  -7    2   -3   -4   -2   -6   -7]
   [  -1   -1   -5    2   -9   -8    3]
   [  -7   -8   -6   -3   -7   -7   -5]
   [  -2    6   -3    6    6   -4    4]
   [  -5   -1  -12    0  -10  -10   -6]
   [  -8    3   -8    2   -9   -3   -8]
   [  -9    0   -5    8   -4    0   -9]]

  [[  13    6    1   12   -1    3    2]
   [   4    4   -1   13   12    3    0]
   [   6   -3    4   -1    2    1    0]
   [   8    0   -2   -3    7    9   -6]
   [   4   -5    4    4   -6    1    4]
   [  -2   -2    1    1    3    2    4]
   [   7    5   -2    2    2    7   -9]]

  [[   1    1   10   17   12    0   18]
   [   3   11    6    8    0    7    1]
   [   9    2    3   -1   -4   11    5]
   [   6    6    3   10   -6   11   13]
   [   3    7    4    6   -8   -3    3]
   [  13    3    8    5    4    5   12]
   [  15    6   16   17    2    3    7]]

  [[   1   -1    4    1    3   -6    5]
   [  -1    1   -3   -8    0   -4   -1]
   [   7    5    0   -1    2    2    1]
   [  -4   -3    1   -8   -2    0    5]
   [  -5    0   -1   -2   -8    1    8]
   [  -1    5   -6    2    6   -1    4]
   [  -4   -9    0   -4   -3   -8    8]]]


 [[[ -22  -18  -14   -7   41   73   43]
   [   3  -46  -20  -26   54   87   58]
   [  73   35   18   40   95  127   88]
   [  15   -6  -10  -29   52   49   22]
   [  -8  -21  -19  -17   50   75   21]
   [ -34  -39  -38  -45   30   86   47]
   [ -17   -5  -32   17   71  119   85]]

  [[  -4  -20   -2    9   10   -5    5]
   [ -22   19   12   31   -6   14    8]
   [   6  -13   12   -3   12   18   21]
   [ -24    6    5   -6   16    4    5]
   [  -3  -14    0   22    0    9   -6]
   [  -9   12    9  -10   17    5   -5]
   [ -18   -5  -15    4  -22  -22    6]]

  [[   0    6  -26    3    6   13   26]
   [  11    2    8   24    8   40   49]
   [   2   32   20   -4    7   14    8]
   [  10    2   13    6   -2   41   -4]
   [  10   -8    6  -16   19   26   29]
   [   4   26   21   36   12   58   39]
   [   7   18    3   12   36   18   -2]]

  [[ -35  -19  -19   -9  -21  -31   -9]
   [ -20  -34  -43  -24  -33  -36  -13]
   [ -22   -5  -12   10  -35   -8   -2]
   [  -6   -3  -20   -1  -32  -31  -20]
   [  -9  -17    0   -8  -30   -6   18]
   [   7   -7   -1   28    8   16   11]
   [   2    0  -10    5    9   -7   25]]

  [[   9   -8   -1  -10  -26  -16  -22]
   [  -2  -13    5  -26  -32  -19  -26]
   [ -12  -15   -2    0  -41  -26  -45]
   [ -12   -4  -12   -2  -24  -37  -43]
   [  -7   -9  -24  -11  -46   -5  -38]
   [  -2  -15   -3  -19  -57  -20  -18]
   [   0    1   13  -10  -48  -11  -36]]

  [[  13   11   40   14    3  -15  -49]
   [   4   18   31   -6    5  -19  -50]
   [   8   -1   -5    4    3  -38  -58]
   [  11   -1   24   -6   19  -29  -73]
   [   9   -4   10   19   -4  -11  -57]
   [  11    8   17   -8   17  -35  -78]
   [   6   25    8   -8   17  -28  -35]]]


 [[[ -47   -5  -53  -15 -115  -39  -19]
   [ -30   -1  -53  -14 -105  -48  -26]
   [ -25    4  -56  -33 -116  -31    1]
   [  58   64    8   -8  -50   47   74]
   [   6   -7  -24  -10  -81   -7   19]
   [ -33  -21  -41  -18 -101  -18  -24]
   [ -45  -31  -67  -43 -127  -56  -34]]

  [[  -9   10   -8  -13   -5  -11   -5]
   [   5    1  -12   -9   -2    2   -4]
   [  -8    3   -4   -6   11  -13  -15]
   [  17   -2  -10   -6    8   -7   -2]
   [  -1   -6    6   -2   11    0   13]
   [  13    0    6    2    1   -2    2]
   [   1    2   -5   -2    9    1    0]]

  [[ -11   -7  -13    3   -9  -11  -25]
   [ -20  -12   -1  -10   -4  -14   -7]
   [  -9  -10   -9   -4   -7  -20  -17]
   [ -13   -3   -6    7  -15    5   -4]
   [  -7  -12  -15  -13  -13  -14  -19]
   [ -11  -17  -10   -9  -18  -10   -9]
   [ -19  -21  -13   -1  -15  -28  -10]]

  [[  16   22   13   17   11   11   14]
   [  18   -9   -5    2  -12    2  -10]
   [  21    2    8   -5   -4   13   -8]
   [  10   11    0   -3  -14  -10    6]
   [  10   -6   11    3   -9   -9  -12]
   [  -1   -7    7  -14   -3    8  -16]
   [  -4   -2   -1  -12  -22   -9  -16]]

  [[  16   22   25   11   14   15   17]
   [   8   -1    5    0   -1   11   13]
   [   3   -2   10   -4   -7  -10    9]
   [  20    5   10    3    6   13   19]
   [   8   10   12    8   -5    9   17]
   [  13   10    5   16   20   15   24]
   [  27   25   25   33   35   14   28]]

  [[  12   -2  -11   -8   10    0   -3]
   [   2    1    5   -4    6    1    4]
   [  -6   -2  -14  -16   -8  -25    2]
   [  23  -11  -14    0  -10  -10    1]
   [   8   10   -2   15   -8   -7    1]
   [  15   -3    8    6   -8    7   10]
   [  29   26   22    6    9   14   27]]]]

qw5:
[[[[ 12 -20 127]
   [ -6  59  12]
   [-22  82  17]]

  [[ 51  52  97]
   [ 99   6  97]
   [ 48  41  82]]

  [[ 21 -26 -14]
   [ 13  30   8]
   [ 42 -51  55]]

  [[ 43  33  -2]
   [ 31 115   6]
   [ -8  12  17]]

  [[ 79  89 -62]
   [ 76  70 -24]
   [119  36  16]]

  [[ 48  60 -46]
   [ 60  53   4]
   [ 36  13  89]]]


 [[[ -4   2 106]
   [ -5  30  64]
   [ 48   5   8]]

  [[ 26  57  94]
   [ 64  53  10]
   [ 58  59  42]]

  [[ 24  21  -1]
   [ 45  -8   8]
   [  9   3   4]]

  [[ 28  56 -18]
   [  0  94  51]
   [ 21   8 -11]]

  [[ 44  87 -46]
   [ 59 111 -14]
   [127  26 -16]]

  [[ 49 -14  24]
   [ 56  47  26]
   [ 66  15  30]]]


 [[[-25  74  61]
   [ -2  48  53]
   [ 26  32   7]]

  [[-21  96  80]
   [ 67  85 -30]
   [ 72  64 -11]]

  [[ 28 -15  -1]
   [ 16   2   3]
   [  1  63  24]]

  [[  0  36   9]
   [ 57  38  56]
   [-36  51   5]]

  [[ 54  48 -19]
   [127  77 -29]
   [ 97  60 -10]]

  [[ 71 -12  19]
   [ 47  42  59]
   [ 68  84 -23]]]]

